digraph Tree {
node [shape=box, style="filled, rounded", color="black", fontname="helvetica"] ;
edge [fontname="helvetica"] ;
0 [label="Tanggal <= -0.83\nsquared_error = 0.81\nsamples = 4837\nvalue = 1.34", fillcolor="#f6d5bd"] ;
1 [label="Tanggal <= -1.39\nsquared_error = 0.83\nsamples = 1244\nvalue = 1.26", fillcolor="#fae7da"] ;
0 -> 1 [labeldistance=2.5, labelangle=45, headlabel="True"] ;
2 [label="Tanggal <= -1.5\nsquared_error = 0.86\nsamples = 449\nvalue = 1.22", fillcolor="#fcf1e9"] ;
1 -> 2 ;
3 [label="Tanggal <= -1.62\nsquared_error = 0.88\nsamples = 301\nvalue = 1.25", fillcolor="#fbeadd"] ;
2 -> 3 ;
4 [label="squared_error = 0.92\nsamples = 153\nvalue = 1.24", fillcolor="#fbece2"] ;
3 -> 4 ;
5 [label="squared_error = 0.84\nsamples = 148\nvalue = 1.26", fillcolor="#fae7d9"] ;
3 -> 5 ;
6 [label="squared_error = 0.81\nsamples = 148\nvalue = 1.16", fillcolor="#ffffff"] ;
2 -> 6 ;
7 [label="Tanggal <= -1.17\nsquared_error = 0.81\nsamples = 795\nvalue = 1.28", fillcolor="#f9e2d2"] ;
1 -> 7 ;
8 [label="Tanggal <= -1.28\nsquared_error = 0.76\nsamples = 323\nvalue = 1.34", fillcolor="#f6d6be"] ;
7 -> 8 ;
9 [label="squared_error = 0.73\nsamples = 162\nvalue = 1.33", fillcolor="#f7d8c2"] ;
8 -> 9 ;
10 [label="squared_error = 0.78\nsamples = 161\nvalue = 1.35", fillcolor="#f6d3ba"] ;
8 -> 10 ;
11 [label="Tanggal <= -0.94\nsquared_error = 0.85\nsamples = 472\nvalue = 1.25", fillcolor="#fbebe0"] ;
7 -> 11 ;
12 [label="Tanggal <= -1.05\nsquared_error = 0.85\nsamples = 328\nvalue = 1.22", fillcolor="#fcf0e8"] ;
11 -> 12 ;
13 [label="squared_error = 0.83\nsamples = 167\nvalue = 1.22", fillcolor="#fcf1e8"] ;
12 -> 13 ;
14 [label="squared_error = 0.88\nsamples = 161\nvalue = 1.23", fillcolor="#fcf0e8"] ;
12 -> 14 ;
15 [label="squared_error = 0.83\nsamples = 144\nvalue = 1.3", fillcolor="#f8dfcd"] ;
11 -> 15 ;
16 [label="Tanggal <= -0.15\nsquared_error = 0.8\nsamples = 3593\nvalue = 1.37", fillcolor="#f5cfb3"] ;
0 -> 16 [labeldistance=2.5, labelangle=-45, headlabel="False"] ;
17 [label="Tanggal <= -0.38\nsquared_error = 0.72\nsamples = 994\nvalue = 1.48", fillcolor="#f0b58b"] ;
16 -> 17 ;
18 [label="Tanggal <= -0.49\nsquared_error = 0.8\nsamples = 626\nvalue = 1.36", fillcolor="#f6d1b7"] ;
17 -> 18 ;
19 [label="Tanggal <= -0.6\nsquared_error = 0.78\nsamples = 482\nvalue = 1.37", fillcolor="#f5ceb3"] ;
18 -> 19 ;
20 [label="Tanggal <= -0.72\nsquared_error = 0.77\nsamples = 329\nvalue = 1.35", fillcolor="#f6d3ba"] ;
19 -> 20 ;
21 [label="squared_error = 0.73\nsamples = 149\nvalue = 1.36", fillcolor="#f5d0b6"] ;
20 -> 21 ;
22 [label="squared_error = 0.81\nsamples = 180\nvalue = 1.34", fillcolor="#f7d6be"] ;
20 -> 22 ;
23 [label="squared_error = 0.78\nsamples = 153\nvalue = 1.41", fillcolor="#f3c5a3"] ;
19 -> 23 ;
24 [label="squared_error = 0.88\nsamples = 144\nvalue = 1.31", fillcolor="#f8dcc7"] ;
18 -> 24 ;
25 [label="Tanggal <= -0.26\nsquared_error = 0.54\nsamples = 368\nvalue = 1.67", fillcolor="#e68742"] ;
17 -> 25 ;
26 [label="squared_error = 0.52\nsamples = 187\nvalue = 1.7", fillcolor="#e58139"] ;
25 -> 26 ;
27 [label="squared_error = 0.55\nsamples = 181\nvalue = 1.65", fillcolor="#e78d4b"] ;
25 -> 27 ;
28 [label="Tanggal <= 1.09\nsquared_error = 0.82\nsamples = 2599\nvalue = 1.32", fillcolor="#f7d9c3"] ;
16 -> 28 ;
29 [label="Tanggal <= 0.3\nsquared_error = 0.82\nsamples = 1707\nvalue = 1.35", fillcolor="#f6d3ba"] ;
28 -> 29 ;
30 [label="Tanggal <= -0.04\nsquared_error = 0.87\nsamples = 651\nvalue = 1.29", fillcolor="#f9e1cf"] ;
29 -> 30 ;
31 [label="squared_error = 0.86\nsamples = 159\nvalue = 1.26", fillcolor="#fae8db"] ;
30 -> 31 ;
32 [label="Tanggal <= 0.19\nsquared_error = 0.87\nsamples = 492\nvalue = 1.3", fillcolor="#f8decb"] ;
30 -> 32 ;
33 [label="Tanggal <= 0.07\nsquared_error = 0.84\nsamples = 333\nvalue = 1.29", fillcolor="#f9e0ce"] ;
32 -> 33 ;
34 [label="squared_error = 0.87\nsamples = 178\nvalue = 1.3", fillcolor="#f9e0ce"] ;
33 -> 34 ;
35 [label="squared_error = 0.81\nsamples = 155\nvalue = 1.29", fillcolor="#f9e0ce"] ;
33 -> 35 ;
36 [label="squared_error = 0.91\nsamples = 159\nvalue = 1.32", fillcolor="#f7dac5"] ;
32 -> 36 ;
37 [label="Tanggal <= 0.97\nsquared_error = 0.79\nsamples = 1056\nvalue = 1.38", fillcolor="#f4cbad"] ;
29 -> 37 ;
38 [label="Tanggal <= 0.86\nsquared_error = 0.77\nsamples = 907\nvalue = 1.39", fillcolor="#f4c9ab"] ;
37 -> 38 ;
39 [label="Tanggal <= 0.64\nsquared_error = 0.77\nsamples = 744\nvalue = 1.37", fillcolor="#f5cdb1"] ;
38 -> 39 ;
40 [label="Tanggal <= 0.41\nsquared_error = 0.73\nsamples = 435\nvalue = 1.4", fillcolor="#f3c6a6"] ;
39 -> 40 ;
41 [label="squared_error = 0.75\nsamples = 152\nvalue = 1.36", fillcolor="#f5d1b6"] ;
40 -> 41 ;
42 [label="Tanggal <= 0.52\nsquared_error = 0.72\nsamples = 283\nvalue = 1.43", fillcolor="#f2c19d"] ;
40 -> 42 ;
43 [label="squared_error = 0.72\nsamples = 146\nvalue = 1.43", fillcolor="#f2c19d"] ;
42 -> 43 ;
44 [label="squared_error = 0.71\nsamples = 137\nvalue = 1.43", fillcolor="#f2c19d"] ;
42 -> 44 ;
45 [label="Tanggal <= 0.75\nsquared_error = 0.81\nsamples = 309\nvalue = 1.33", fillcolor="#f7d7c0"] ;
39 -> 45 ;
46 [label="squared_error = 0.8\nsamples = 151\nvalue = 1.31", fillcolor="#f8ddc9"] ;
45 -> 46 ;
47 [label="squared_error = 0.82\nsamples = 158\nvalue = 1.36", fillcolor="#f6d1b7"] ;
45 -> 47 ;
48 [label="squared_error = 0.79\nsamples = 163\nvalue = 1.46", fillcolor="#f0b890"] ;
38 -> 48 ;
49 [label="squared_error = 0.89\nsamples = 149\nvalue = 1.34", fillcolor="#f6d5be"] ;
37 -> 49 ;
50 [label="Tanggal <= 1.31\nsquared_error = 0.83\nsamples = 892\nvalue = 1.28", fillcolor="#f9e3d4"] ;
28 -> 50 ;
51 [label="Tanggal <= 1.2\nsquared_error = 0.82\nsamples = 274\nvalue = 1.25", fillcolor="#fbebe0"] ;
50 -> 51 ;
52 [label="squared_error = 0.75\nsamples = 137\nvalue = 1.31", fillcolor="#f8dcc8"] ;
51 -> 52 ;
53 [label="squared_error = 0.9\nsamples = 137\nvalue = 1.17", fillcolor="#fffdfc"] ;
51 -> 53 ;
54 [label="Tanggal <= 1.54\nsquared_error = 0.83\nsamples = 618\nvalue = 1.3", fillcolor="#f9e0ce"] ;
50 -> 54 ;
55 [label="Tanggal <= 1.42\nsquared_error = 0.79\nsamples = 293\nvalue = 1.3", fillcolor="#f8decb"] ;
54 -> 55 ;
56 [label="squared_error = 0.75\nsamples = 166\nvalue = 1.3", fillcolor="#f8decb"] ;
55 -> 56 ;
57 [label="squared_error = 0.84\nsamples = 127\nvalue = 1.3", fillcolor="#f8decc"] ;
55 -> 57 ;
58 [label="Tanggal <= 1.65\nsquared_error = 0.86\nsamples = 325\nvalue = 1.29", fillcolor="#f9e1d0"] ;
54 -> 58 ;
59 [label="squared_error = 0.86\nsamples = 148\nvalue = 1.28", fillcolor="#f9e3d2"] ;
58 -> 59 ;
60 [label="squared_error = 0.85\nsamples = 177\nvalue = 1.3", fillcolor="#f8dfcd"] ;
58 -> 60 ;
}